<?xml version="1.0"?>
<opencv_storage>
<my_nn type_id="opencv-ml-ann-mlp">
  <layer_sizes type_id="opencv-matrix">
    <rows>1</rows>
    <cols>3</cols>
    <dt>i</dt>
    <data>
      50 30 6</data></layer_sizes>
  <activation_function>SIGMOID_SYM</activation_function>
  <f_param1>6.6666666666666663e-001</f_param1>
  <f_param2>1.7159000000000000e+000</f_param2>
  <min_val>-9.4999999999999996e-001</min_val>
  <max_val>9.4999999999999996e-001</max_val>
  <min_val1>-9.7999999999999998e-001</min_val1>
  <max_val1>9.7999999999999998e-001</max_val1>
  <training_params>
    <train_method>BACKPROP</train_method>
    <dw_scale>1.0000000000000000e-003</dw_scale>
    <moment_scale>9.0000000000000002e-001</moment_scale>
    <term_criteria><epsilon>1.1920928955078125e-007</epsilon>
      <iterations>300</iterations></term_criteria></training_params>
  <input_scale>
    4.3887875032290387e-004 1.0200820032564031e+000
    9.5688123239858868e-004 -4.1388028314366552e-003
    1.1224321687034597e-003 -1.3178199048811032e-001
    1.4600829884195913e-003 1.2122877754136232e+000
    1.6209921929936021e-003 1.5607993325735495e-001
    1.6748163135450501e-003 -7.8653552233616295e-002
    2.6325895964188399e-003 4.1186140941444283e-001
    3.0937723527290975e-003 4.2038705778883212e-001
    2.2349176613721601e-003 4.9984751661891541e-001
    1.7311295078863342e-003 4.5379968453368519e-001
    2.7311308387625703e-003 -1.0790601643909099e+000
    2.2422292604842515e-003 -1.3557444344164702e+000
    3.9360850011736850e-003 1.7678997918871240e+000
    3.9462777092945872e-003 1.7324871405990607e+000
    4.5272446869450049e-003 1.8200936728733608e+000
    4.5473620316854937e-003 -7.1041395960435316e-001
    3.7117640366896567e-003 3.1738507439929418e+000
    3.2575835460817563e-003 4.1185628093391147e-001
    3.9512440175877286e-003 1.9733455638476658e+000
    5.1052755130188976e-003 -1.2917565018701946e+000
    5.6531970695127736e-003 1.3285566408549141e+000
    5.5883624592540579e-003 1.5615235129870311e-001
    6.3951333174369074e-003 -2.2044064346394783e+000
    6.5071172948921140e-003 -6.9238694186701488e-001
    3.6122947033802146e-003 1.6512465449738492e-001
    6.6386785911211939e-003 3.5513761654600362e-001
    7.7474113961559310e-003 1.1626890656961422e+000
    5.3716956228150037e-003 4.5345508312154124e+000
    6.1782250973598423e-003 4.5346363434412718e-001
    9.1022557451191019e-003 2.7710044115582795e+000
    6.4479123272522766e-003 -2.8667571660491302e+000
    6.0026306924067839e-003 -1.0161158373292298e+000
    6.9858525060904697e-003 -3.6401191165850161e-001
    9.5256780640145134e-003 5.6533562994531517e+000
    9.8298387064411213e-003 -9.9786790102152334e-001
    1.0164870383981844e-002 -2.8746791610712247e-001
    1.0496766549566496e-002 -6.4607358256844472e-001
    8.9419068923391916e-003 1.3835344386031569e+000
    7.0976714717726876e-003 1.7224104772753663e+000
    1.1036558714355426e-002 -4.1147218806774449e-001
    1.0458767513154846e-002 -1.6035036015126014e+000
    1.1384151464787825e-002 -3.1095900501556391e+000
    1.0785013005088551e-002 2.4864030453107993e+000
    8.8286461346920638e-003 1.0214173967237308e-001
    9.9327061191405372e-003 -6.0326288034503428e-001
    1.1894286225492681e-002 1.8929157963280587e+000
    9.3886439273166353e-003 -1.9455064626915020e+000
    1.2118088939636789e-002 -3.7821716105198675e+000
    1.1321442098084273e-002 -3.3495615439682744e+000
    5.1166339666134835e-003 2.3982664531520923e+000</input_scale>
  <output_scale>
    5.2631578947368418e-001 4.9999999999999994e-001
    5.2631578947368418e-001 4.9999999999999994e-001
    5.2631578947368418e-001 4.9999999999999994e-001
    5.2631578947368418e-001 4.9999999999999994e-001
    5.2631578947368418e-001 4.9999999999999994e-001
    5.2631578947368418e-001 4.9999999999999994e-001</output_scale>
  <inv_output_scale>
    1.8999999999999999e+000 -9.4999999999999996e-001
    1.8999999999999999e+000 -9.4999999999999996e-001
    1.8999999999999999e+000 -9.4999999999999996e-001
    1.8999999999999999e+000 -9.4999999999999996e-001
    1.8999999999999999e+000 -9.4999999999999996e-001
    1.8999999999999999e+000 -9.4999999999999996e-001</inv_output_scale>
  <weights>
    <_>
      1.1743360700768642e-001 2.1886740444030864e-001
      2.1047641334790099e-001 -6.4785226666476425e-001
      -4.3472012307848384e-001 8.7584850327951935e-003
      -5.3791872727002665e-001 2.8024968247431631e-001
      9.2731890934864197e-002 1.4718903324950933e-001
      -1.3423288626183918e-001 -7.7973297311437195e-001
      -8.3085307887433485e-002 -8.2675015642166921e-002
      3.5604477598566608e-001 1.7598773655337385e-001
      5.3206301671101552e-001 9.8285666086486062e-002
      3.2911815377014575e-001 1.3505487032272492e-001
      -2.3619801642126290e-001 7.0758078000798225e-002
      -2.7921038976507329e-001 -9.0370580263632441e-002
      4.0233836170954468e-002 2.3105929519688709e-001
      5.3157192367774264e-001 -1.2433008878547566e-001
      1.1085387656306656e-001 9.8103884635422758e-002
      -1.9107362767227690e-002 9.2198981356641618e-002
      -4.8446528042807316e-002 1.2378308378998367e-002
      -2.3247839234135356e-002 -1.2716208677317698e-002
      3.0399916330622251e-001 2.6818419101825208e-001
      -2.7116933564786498e-002 -3.0754603166991537e-002
      -4.9082014435794069e-001 2.1045649571279612e-001
      8.6261659493306497e-002 -3.0352607104305093e-002
      -1.8317818226328519e-001 -2.2771185943039474e-001
      -9.6866652066841530e-002 7.1187449294911253e-003
      -1.9109397862105162e-001 -1.2941937858068022e-002
      -3.5335712861068597e-002 9.8163206931418973e-002
      -8.7676631357805859e-002 -3.6865400695521211e-001
      -3.9431680429894417e-001 1.5198717592927835e-001
      2.3053431212238112e-001 1.5930063026240723e-001
      1.7194543823388420e-002 -3.0101843008749024e-001
      8.4735061338666762e-002 -1.2408741167048364e-001
      -3.6786924676514388e-001 -3.0969637707411296e-001
      -2.9809021909096084e-001 1.0334314950219879e-001
      1.5333479503744449e-001 1.1593111514302221e-001
      -7.2471270496318560e-002 -5.0393797556355528e-002
      -1.8019808322999400e-001 -1.2579632672177149e-002
      -1.1789466349482507e-001 -1.1866311212096828e-001
      3.9592792917915626e-001 -2.1040722810580384e-001
      1.1321600516949860e-001 -2.0760733271682699e-001
      1.7067621552779000e-001 -2.3971199276367564e-001
      -9.2629968971586901e-002 -5.7822617494405669e-002
      -2.6491674997845033e-001 2.7212472762632345e-001
      -1.1057000483982406e-001 2.2570850039440757e-001
      -5.7613220820827399e-002 -1.0737428313703627e-001
      2.1026529114645276e-001 7.1134822300169792e-002
      -1.7866536440053163e-002 4.0353182259646875e-002
      1.7427160946137421e-001 1.1555914402500518e-001
      2.1929893366466663e-001 -1.7134551419517433e-002
      -4.2575152163361593e-002 -6.2974963484448671e-002
      1.1091822506620075e-001 1.7844528617612859e-002
      1.4870874898936892e-001 1.0736473859917441e-001
      1.1205328987676910e-001 1.4094045868823538e-001
      -3.1386073560820010e-001 6.7043235822919919e-002
      -1.0785675384066871e-001 1.9565027717061131e-001
      -1.9130549845708864e-001 -1.3613541879939048e-001
      7.4945333241909759e-002 -9.4871733137310038e-002
      1.8391950537843205e-001 -1.1140576633484774e-001
      -2.9855559392692327e-002 -1.2060764093535156e-001
      1.3765404998891320e-001 1.4726965492445449e-001
      8.5127574566332007e-002 -2.4366169984124228e-001
      2.3451663625213695e-001 1.8557645411485280e-001
      -1.4531500239147125e-002 -1.0949923575521855e-001
      -7.2410426738543088e-002 9.5329646024381945e-002
      -7.4775281847130268e-002 1.1106421313823074e-001
      2.6764257271368459e-002 2.4491803333552251e-001
      -1.5068779550011088e-001 -2.5586071718580389e-001
      9.9624369066653562e-002 3.2421853292492246e-002
      4.2879543242831492e-001 4.8920986532542208e-003
      3.4446447176960648e-001 9.4966448034506254e-002
      7.9840445029339915e-002 -2.6610591940297629e-001
      -4.6567572673285304e-002 1.5807370593695541e-001
      -1.2608707380008782e-001 -1.3314494608876418e-001
      -1.6557963440991796e-001 2.6034921219117252e-001
      2.5282767470702294e-001 -1.0929386469060190e-001
      5.2573336639224311e-001 -4.4906499403524081e-001
      5.4527394289809170e-002 -1.2295603776069380e-001
      2.7126512545034287e-002 -1.0444644269407562e-001
      -2.2252543818332204e-001 5.8633441778714032e-002
      4.8339277924534185e-002 -6.9509717830504927e-002
      -1.6205338519426918e-001 -3.8099589659220022e-002
      3.6634871265973458e-002 6.2942873328683049e-002
      -1.0656320123854382e-001 -9.7694300607514620e-002
      2.2649976581527170e-001 -4.3640725410934902e-002
      -5.8006628007295780e-002 -1.7110293328824591e-001
      1.7717866867242071e-001 2.6118875521439566e-001
      -2.0579923149120546e-002 3.1692079870380568e-001
      -1.1617676627083678e-001 -7.1557241151680301e-002
      1.1723975062634202e-001 1.4482392669215716e-001
      -1.5779822794959383e-001 -8.8581970164631943e-002
      -1.0338866670566345e-001 1.5217959660149824e-001
      6.7275938314370870e-002 -5.4902396414373784e-002
      -7.9711462018290449e-002 -1.4641848163122603e-001
      -2.7492751501507218e-001 9.8204681035604022e-003
      -1.7861686003770344e-001 -1.0505697378382330e-001
      -6.7712245841220174e-003 -1.0474156745468313e-001
      9.0892958956349537e-002 5.1360459500409607e-002
      -3.4458636191831288e-002 -9.3887584965041213e-003
      1.8502356771994251e-002 -9.3833770118274401e-003
      1.7444989153416735e-002 -1.3955546283264510e-002
      6.4820892158450563e-002 -6.4228839652888239e-002
      -7.9668293271035015e-002 -2.1691304242563953e-002
      -1.2572071732628218e-001 -3.1060991589244455e-002
      2.6802420765672279e-002 4.4314508666839190e-002
      1.9587670970756699e-001 1.8172984063477064e-002
      1.5341267345894340e-002 4.0704119038507597e-002
      6.3623231338780367e-002 7.9296837411664253e-002
      -1.1962083458456797e-001 -2.3518080533248115e-001
      -2.5095231995348372e-001 2.5424164508902770e-002
      -4.2273090939695800e-002 4.1146855030526480e-002
      3.3147430027334106e-002 8.5621304898718581e-002
      -1.1126634478359392e-001 -5.9737379413619299e-002
      1.3184601744449753e-001 -5.2573656957860442e-003
      4.5297277180333474e-002 -2.3564715089754548e-002
      2.6903556633832371e-001 4.8508711438600138e-002
      -5.0465197339712164e-002 -8.8941996107123444e-002
      6.3858629079117712e-002 -2.2573564551123662e-001
      -8.0307406089759670e-002 2.0494371838198333e-001
      -1.0175973858969689e-001 3.2785489748606893e-002
      1.3008377465058232e-001 4.4932850843039322e-002
      1.0646275876109082e-001 -1.1018082505015271e-001
      5.7211607448429187e-002 1.2831362831859967e-004
      -1.3273771619808802e-001 -1.7226794790523151e-001
      5.6783505449013782e-002 -2.3078543083230693e-002
      -2.3463106308563929e-002 -4.3737768390929230e-002
      5.8029828352285989e-003 4.5490510584811818e-003
      1.7393797463170102e-002 1.5833786372565983e-001
      -1.3662196714133478e-002 1.6697832895817950e-002
      -1.2233212827539854e-001 -1.0892505013236026e-003
      -5.4544829337435867e-002 -1.9863936929755662e-003
      5.5297407962945570e-002 -1.6313185495799587e-001
      4.8987673904717491e-002 -9.5427636323535903e-002
      -1.2946059177911152e-002 -2.7809283477121801e-002
      -7.0413268021509287e-003 -6.9137553031301854e-002
      1.9505650583192971e-001 4.3577284187283773e-002
      2.2016481144703313e-002 -1.7701779844568759e-002
      5.1591956947600687e-002 7.5071566231087572e-002
      3.9869868718363302e-002 -1.0847614487097089e-001
      -2.1674602180233069e-001 8.8594453378075422e-002
      -1.5898994652084168e-002 8.3342613028605239e-002
      -1.3722224803191424e-001 1.6342123962820998e-001
      -7.9446929838030381e-002 -9.1763017822789492e-002
      9.6056879577669285e-002 -3.8277805003525733e-002
      3.2678558696193388e-001 4.6773633792781669e-002
      2.4486071667686132e-001 5.3726220259331318e-002
      2.5485344827933930e-002 -1.6694353564046471e-002
      -4.5769145254037046e-002 1.3736110730323958e-001
      -1.1416753368235227e-001 -5.1197751847707890e-002
      -3.3479007172834099e-002 1.4186279404234536e-001
      1.9419567499608121e-002 -1.5822937386505007e-001
      3.1658263791456942e-001 1.9178685858866847e-002
      3.8206036219538164e-002 -3.0585786017713772e-002
      6.4272992612729091e-002 -1.0072388244536418e-001
      -2.1611141624757324e-001 -4.4077264530802233e-002
      -2.3342958808921926e-001 -6.4574708337911318e-002
      -6.3634071577103102e-002 7.8238809938571435e-002
      1.1457392888122901e-001 -4.4519615707901625e-002
      -2.8685206744441152e-002 -6.4888666709478210e-003
      -9.7162342596757365e-002 1.0289082708367511e-001
      -6.0046264294822779e-002 5.9598640986607790e-002
      3.1916345893618137e-002 1.3036318706732822e-001
      -3.2647098241341384e-002 4.7830950505882479e-002
      4.8847536369463086e-003 -1.0557140607381361e-001
      2.0712818227440943e-001 -1.5325182881563909e-001
      1.3264374292624720e-001 -9.8888495678827563e-003
      3.0091099007179783e-001 3.4011630230015015e-002
      -1.0021435550745358e-001 7.4064996953605064e-002
      1.0528184103452776e-001 1.5264577335385718e-001
      -2.8891076100490992e-001 3.0860805777105024e-002
      8.7747443060120528e-002 7.7315636187315351e-002
      -3.3878298367450987e-002 -4.8007434095771524e-002
      -1.3561089613284413e-001 1.0299353096637590e-001
      3.1173657318107249e-002 7.4960482720171168e-002
      5.8570186134028991e-003 -1.5721940626100571e-002
      -9.7528154388619795e-003 1.2383881728379283e-002
      -5.4508377474515528e-002 5.3584281924180625e-002
      -1.5481165342261792e-002 -5.2448089363744031e-002
      8.9140702658189713e-002 -4.2943053335698068e-002
      -7.3073199608226544e-002 4.1734422391765363e-002
      9.4125892990719690e-002 2.6302276621117074e-002
      2.5096747367153804e-001 3.7205407874341956e-002
      -5.2120964995852379e-002 6.9450973107887823e-002
      1.1944880437621087e-002 2.0994675341860520e-002
      -7.5686024332274260e-003 -8.9517954046782353e-002
      -1.3794658584384329e-002 5.2181715593138930e-002
      3.4695101580351259e-002 6.2196317524866700e-003
      -8.1162411668774373e-002 1.3278814374832107e-001
      3.4734767028059617e-002 1.7859882342677928e-002
      -1.2899734630504351e-002 5.1682597747476834e-002
      -1.7091901858121394e-001 4.7883631564563330e-002
      -4.2160557761592450e-002 -1.3454651499787490e-001
      4.6033605656721863e-002 -1.5431858901266091e-001
      3.9681415570932327e-002 3.4279346153352250e-002
      1.6828585720538553e-002 3.6219304845859180e-003
      4.0205231407980276e-002 -9.6161658013404309e-003
      -1.1319551089398332e-001 2.1564712585581288e-002
      -3.4908069100805994e-003 1.6586715023526506e-002
      -1.1565251141732484e-002 9.3269966498172735e-002
      -1.8419018732030745e-001 -6.7516321582862257e-003
      3.7902611471201608e-002 -2.4971883471909997e-002
      -9.6459381258033439e-002 2.6139029447926967e-003
      -1.0167812918923880e-002 1.0267239555625295e-002
      3.2528221502712229e-002 -4.9785970372824171e-003
      -1.2683237529662927e-001 -5.5073236291301404e-002
      2.1696913139749606e-002 -1.3638976460541307e-002
      -6.0281593607334812e-003 1.9065212471293336e-001
      -5.8280348719483401e-003 7.4099687049382690e-002
      2.7952479762768628e-002 4.7480175543603504e-003
      5.0004147349978254e-002 -1.1546088479720615e-001
      3.3387451054549044e-002 4.9809100610158058e-002
      -9.8501382344048663e-002 1.4997814215765401e-001
      8.2537575327314844e-003 -1.8243518479561266e-002
      6.0593010469225793e-002 8.4587706744281885e-002
      3.1980279336647099e-001 -1.9309743510250929e-002
      1.6267806168667590e-001 -3.9537473932058045e-002
      -2.1243819312136397e-002 -4.3427962229789764e-002
      -6.5264538148883486e-002 9.3703983391825590e-002
      5.6313302697604067e-002 5.7304143707631282e-003
      -6.3625832846742711e-002 1.7623917314814909e-003
      -5.3822734314152534e-002 -3.5549789329328602e-003
      -5.1895487673508926e-002 7.9885320861561970e-002
      4.9720481778983132e-002 -2.6748576469598655e-002
      6.4583770690973374e-002 7.0154939849973300e-002
      5.1579481446186640e-002 -7.4150824130195025e-002
      -9.1017114309448172e-002 5.3775031374035569e-003
      -1.7480113873436937e-001 3.3906025679513924e-002
      4.8792961739230568e-002 8.3975185632740354e-002
      4.2988876975956276e-002 9.5360949756549060e-002
      -2.1996891296004650e-001 -3.4335793184921554e-002
      -1.1961212000723439e-002 1.3178102983385639e-001
      3.5662641268512221e-002 3.3199417439051658e-002
      -7.6453258252751274e-002 9.5330646308122279e-003
      -1.5034731022680239e-002 1.7196326787448422e-003
      9.3687796822680067e-002 -1.2383112523151463e-002
      6.3994171540091280e-002 3.1807966859847596e-002
      1.8290365061399489e-002 -5.3266460807818904e-002
      -3.3721105422613973e-002 -6.1745598595475015e-002
      -1.7581092324891689e-002 -2.9663319170863497e-002
      -5.4559736159920699e-002 1.0417687382211083e-001
      1.0920825939607857e-001 -1.4132330516869247e-002
      3.1005753613572279e-001 -9.7936941349310112e-003
      1.7026983777620720e-002 2.2824170804057718e-002
      -8.8959058300868477e-002 -1.4633264442552507e-001
      -9.3804097041781595e-002 3.2955688302583691e-002
      -2.7679293602048075e-002 -1.1638284077043277e-002
      9.9181627455475804e-002 3.7164082270062736e-003
      -6.8718752278491071e-002 -4.3265909951822508e-002
      2.9079478473469048e-002 -3.0119153072870296e-002
      -3.5367712597462464e-002 2.9368286554612454e-003
      5.3930176667054602e-002 -1.9570859242183377e-002
      1.0037780062914756e-001 -1.0894989744720622e-001
      -1.0948831964269658e-002 -1.9055873238522847e-001
      1.7824976298512152e-002 8.0840022557453373e-002
      -1.9677484146324836e-002 5.4747202828406810e-002
      -8.4763662234257048e-002 -4.0307327596525465e-002
      -1.0091355512240506e-001 -8.7339705775694113e-003
      5.8633342568666515e-002 -1.6262653389528810e-002
      -1.0192132336282342e-001 -6.0830431385892293e-003
      2.1647541222157479e-001 -2.7679307204690148e-003
      -3.9651003856718353e-002 -7.1912792113363697e-002
      6.2030430423780356e-002 -3.4183272947192448e-003
      -1.1525282001289891e-002 3.9325971479360441e-002
      4.5324854698717068e-002 4.7070589519415370e-003
      1.2861800064840790e-002 1.3411470791953662e-002
      -3.3405381413023301e-002 -6.0217238372083266e-002
      2.4551470160750096e-002 -4.2204164621766752e-002
      -1.3063654087547269e-002 -4.4612823608526218e-002
      -6.9147314874943612e-003 9.9310057626638276e-002
      -1.3629912905574217e-002 -2.0677443184495575e-002
      1.8349434604147386e-002 -1.3522970989901727e-003
      -3.9324786401487583e-001 2.9664598218456555e-002
      1.1798527698583457e-001 -3.4379635340364777e-002
      -1.0124912261187632e-001 -1.4294931309131639e-001
      1.5683520593558806e-001 2.0175133480421593e-002
      -1.5029696837792025e-001 -9.5485057865094342e-002
      8.5093155305972418e-002 2.7765676274217242e-002
      1.8545819839723546e-001 -4.1470569895170596e-002
      1.0873732805685551e-003 2.4040405183179146e-002
      -7.5289755578817216e-002 -1.2020637737614283e-002
      5.6277630474866884e-002 -5.6591790667095444e-003
      9.2471303916954642e-002 -2.2361151524583867e-001
      -1.3364977390278421e-002 3.2003576927205249e-002
      -7.2111250538536356e-002 -3.2452121541269301e-002
      2.1687421767065205e-002 -2.1066040509286593e-002
      -5.8690207677793996e-002 -5.5377193771297926e-003
      -3.2269175633100650e-001 -1.0753970730418974e-001
      3.9583605404838830e-002 -3.1237524833859703e-002
      3.2946004732681156e-003 1.9626017165952109e-001
      2.6143294160079461e-001 4.3718496107925950e-003
      9.6061165224708089e-002 -3.0409962505346090e-002
      7.3590531613686061e-002 4.8665857122969077e-003
      -2.2359166004184094e-002 9.3851174162542877e-002
      -2.8319640719377648e-002 5.3494983347906200e-002
      2.7060573121748272e-002 -3.7322371624395408e-003
      -3.6750716810257558e-002 -2.7452568525545607e-002
      -8.9221286001642225e-002 3.2670070059913743e-002
      -1.1429730141744975e-003 -8.3646506645533039e-002
      1.6085934217694241e-002 3.6613470911936265e-002
      1.0805988081237059e-003 2.9349971964892193e-002
      7.4653167980830659e-002 -2.9578888447028624e-002
      -1.1405632502780186e-001 -2.2458527470815594e-002
      8.8747324040488754e-002 -1.1725527958498606e-001
      -3.3670544363927760e-002 1.7203954763950050e-002
      3.9959434751108858e-001 1.9976462737376913e-004
      -6.8958946879229932e-002 -7.1937517630171408e-002
      1.5812550916670609e-002 3.1418534904561021e-002
      9.8080118719885437e-002 5.6343965406157111e-002
      -3.6518598179518601e-002 -4.6074615220246161e-002
      9.9255651764678914e-003 1.7137547566315890e-002
      -4.4465463619042168e-002 -3.0251427033936625e-002
      9.8085686967289726e-002 -5.0805442490496587e-002
      -1.8743850987430779e-002 7.4345401833343247e-002
      -4.7456664125382637e-002 -3.1627731704496252e-002
      1.8896731772066831e-002 -6.8906069650971735e-002
      -2.5438834239561742e-001 4.6708880688944451e-002
      -5.1957524318508717e-002 -5.7297629006850190e-002
      -4.2795468247325490e-002 -2.1711397287756742e-002
      -2.1055576094797943e-002 6.3332590789232951e-002
      -1.0090909255402811e-001 7.3595160737278037e-002
      1.0390982102484077e-001 8.6872989403067966e-002
      -1.6707354542954370e-002 -4.7492083913731650e-002
      1.0728617669983891e-002 -7.0485996846458857e-002
      -1.8514502880241868e-002 1.3166889700667775e-002
      -2.8431879783585599e-002 -3.3362656906943247e-002
      5.6894660964787779e-003 -3.5081090904602354e-002
      1.9635009307895655e-002 1.4378472785383714e-001
      2.6320644553190390e-002 1.7140667774544813e-001
      9.6077870408373900e-002 -1.2569852789028366e-001
      8.5885234270166699e-002 3.5913269644284886e-003
      -6.6807979449627908e-002 3.0837954005532922e-002
      1.6129436906612074e-001 1.2204954439187304e-001
      5.2716977940274169e-002 1.1313835341211469e-001
      -7.7968165202726925e-002 -3.0894123432948846e-002
      -4.0263920968230338e-001 -9.1867208107453569e-003
      -8.4348204722282286e-002 5.7665985494290443e-003
      -8.9117675873639224e-003 8.1681395329185433e-002
      -1.2637436246974090e-001 7.1750615723716223e-003
      2.9301959063786236e-002 3.5612334785546582e-002
      1.5112375815280766e-002 6.4241226091101819e-002
      7.7109333262634860e-002 2.6359443878182291e-002
      7.4297340093457528e-003 6.1935773820824561e-002
      3.7046619570799862e-002 -7.4050012056035938e-002
      4.0736999159538885e-002 5.2564614268300600e-002
      -8.7572220820579198e-003 -4.5310600875927774e-002
      2.0186322003526391e-001 2.7275470758123102e-002
      1.0216283566192799e-001 2.2846409305419335e-001
      4.6624609301903598e-003 -4.3037953588382860e-002
      7.2031746318142367e-002 6.9848132221472986e-002
      -1.5601356386374136e-002 -2.3616993946578057e-003
      8.0999914385474867e-002 -5.0598561605913819e-002
      -8.2037896280492920e-002 -3.8724088910583258e-002
      5.1984458309836196e-002 1.1108630294564152e-001
      3.6731704050594019e-002 2.0778639236232497e-002
      4.9318997863474878e-002 -2.4415668100548544e-003
      -2.8828664396572591e-002 1.7789723839175969e-002
      -1.2100651429582016e-002 8.5196178786703644e-002
      -1.0185468411629258e-002 1.4133084649833763e-001
      2.9281340603359511e-002 -1.9840836645739909e-001
      1.6680311798019730e-002 3.1250361811010195e-003
      -1.4137569483879930e-001 5.7982256445126409e-003
      -8.1607221464042951e-002 -3.7059263816468895e-002
      -7.6412841770345848e-003 2.2108442968036233e-002
      2.9861303834199802e-002 -8.0331517712360578e-002
      -3.4645989885803335e-001 5.9916493846582106e-003
      3.2838932478273623e-002 2.0463375785421983e-002
      -1.1914067632522098e-001 4.6295947442411174e-002
      -6.4229795518762373e-002 -6.4486423580104826e-002
      3.0758137454028608e-002 1.2985331838061701e-002
      1.1365620239872792e-001 -7.4704046291943743e-002
      9.0175333668777072e-002 4.2060848050808820e-002
      -7.4481698306484490e-002 2.2180946756985528e-001
      -4.3497363340445579e-002 1.4271349386549126e-001
      -2.8735129806327381e-002 -1.0498015026625022e-001
      -7.5004414960861340e-002 6.4855417233697699e-002
      -5.3476835084422907e-002 5.0695355269577006e-003
      4.2663453050845213e-001 -3.0492391900305096e-003
      4.5820351558737449e-005 8.9522859595440346e-002
      1.6747987414146227e-002 -1.1747253838411546e-001
      -1.3377034610709984e-001 -1.9530444112122576e-002
      -9.3198583812112365e-002 4.5373712091379338e-002
      -3.0756173492684238e-003 -4.5675179214079510e-004
      -1.1334470915002171e-001 3.8194515488512534e-002
      -2.1673505715027602e-002 2.9059246990498864e-002
      4.2413446430336838e-003 -3.9678196750032417e-003
      -7.1126091605876011e-003 6.2747092707873584e-002
      -1.0137622031426046e-002 6.9993384291453156e-003
      -3.7904866146055378e-002 5.2969712293897138e-002
      2.2796258556636194e-003 -2.8268852700389688e-002
      3.7818552747838866e-002 1.6425062344006265e-002
      -1.0827397724278229e-001 4.0044339873337345e-002
      1.1294184319451957e-001 1.0805645089519549e-001
      -2.1907339946251315e-002 1.9732723210386868e-002
      2.7240963925301401e-002 3.5887271171718624e-002
      1.3800952578550965e-001 1.6141440511525957e-002
      9.3748841533159974e-002 -1.5727249035993991e-002
      -4.5088100579610602e-002 1.8225846600125051e-002
      9.6843124441711767e-002 1.0345028671549529e-001
      -1.4332627075386085e-002 -5.2810894153734788e-003
      4.1167307191538688e-002 2.5043017139273097e-002
      -7.1459981252141175e-002 2.0594188812551855e-002
      -1.0097310596149407e-001 2.2101485687148384e-001
      -8.5786894511422171e-004 1.0114691221590507e-002
      -3.7354790899122282e-002 1.2678937470021290e-001
      1.2000121911927397e-002 4.1236028469146986e-002
      1.2645704723217052e-001 -1.0467325894855016e-001
      -1.0232772011822198e-001 6.9968709559124653e-002
      -4.6625998995726448e-002 -8.5822461763621807e-002
      -2.0357075874662695e-002 1.0629490041649366e-001
      3.9051559417887127e-001 2.6429919188599091e-002
      4.5396619230912851e-002 -1.3834842338428573e-002
      1.3688191750124108e-002 -4.7982966926789460e-002
      3.8210734285609040e-002 -1.1858518909517021e-002
      3.3763867083365156e-003 -6.0457937275951348e-002
      1.4414759750156067e-002 -2.0569393185498122e-002
      -1.0522503547324161e-001 -2.9043753589092669e-002
      1.9592080975321689e-002 -8.5960335966465060e-002
      3.6648727591344438e-002 6.4151336922035713e-003
      6.8838730881371685e-002 4.1374167052372304e-002
      5.6163117899736256e-002 2.3098243758115953e-002
      -8.6255768101994784e-002 -1.7153809307442293e-002
      -2.7715086761373270e-001 -3.5299270949109347e-002
      2.9394595046291477e-002 1.1151946877033822e-001
      -2.2087904233977620e-002 -5.0352639854323547e-002
      7.7182904072582353e-002 -2.6568154232299385e-002
      -7.0858447639892078e-003 6.9600353684021413e-002
      1.0959434897730960e-001 -1.2521177144622775e-002
      8.7249346081034990e-002 4.4987459880753096e-002
      6.5823202652450008e-002 7.1440030673799327e-003
      -1.3190620468145838e-002 2.7465823840250926e-003
      6.5575825398835025e-002 1.4597287669887335e-002
      -4.7508586046044528e-002 -5.1996796732476057e-002
      4.6312472287183160e-002 -1.6964047707836899e-001
      -8.9749935495087134e-003 4.9083357311909694e-002
      -8.0960342502153532e-002 7.2784532429441440e-002
      -6.5121036125536505e-002 7.1615658743434923e-002
      -4.1821035274402264e-002 1.7648376041692750e-002
      1.1503702619006040e-002 -2.8650107416432154e-002
      2.0987216227885425e-002 -1.5942570704233711e-001
      -2.4489108960843411e-001 4.1485285256909955e-002
      -1.4957983258156343e-002 -2.4202854511882921e-002
      7.2053299152481348e-002 1.6442921136337309e-002
      7.8150006365955774e-002 -1.6044137863479283e-001
      9.7811688452871554e-002 3.5864069924014309e-003
      -5.6631477588780905e-002 -5.3839493089118777e-002
      3.6723191443738826e-002 3.0275522383073634e-002
      2.1240291980749920e-002 3.5307593554060261e-002
      -1.3223413351644972e-003 -4.0684266487424084e-002
      -6.5957048353065026e-002 5.2467480185223341e-002
      -8.1354840614714055e-002 -2.8817270807634413e-002
      1.3344053364863159e-001 -2.9126202421203961e-002
      -8.6912910749752118e-002 -2.6528390070794505e-003
      -2.2046368393040718e-003 -2.1222835919281442e-002
      3.5797840991696202e-002 1.3491685596116851e-001
      -2.3855947982196068e-001 -1.1604891069150775e-002
      7.2403493599594165e-002 2.9163243155578895e-002
      -6.6291542972084130e-002 -5.2139088203805993e-002
      -6.1785547991218175e-003 1.0611305388752634e-001
      3.6320565436227102e-002 -3.7492645255651789e-002
      8.8414046010572408e-004 4.4700021512823193e-002
      -7.6537128446043254e-002 -1.0677026567772337e-002
      -8.4489067374627930e-003 1.6384737958167309e-001
      2.0349475983237334e-002 8.0033405822420495e-002
      4.4362286383115923e-003 -6.6213861138715108e-002
      3.2251844748710998e-002 -1.7318768867147231e-002
      1.2750946888877075e-002 7.4693239194611356e-003
      8.8531900349221482e-002 -1.5213959616033943e-002
      -4.6878592742505007e-003 -6.5774023903736618e-003
      9.6851429786791621e-002 4.1164852888834778e-002
      -1.0267511883505392e-001 -1.7917375856017801e-002
      -6.0880848181671301e-003 -2.6794676695298769e-003
      -8.9942296330245863e-002 1.3579998251603121e-002
      -3.1923878084895232e-002 8.3483953029232505e-002
      -1.7873371743662925e-002 -6.3493647598956270e-003
      1.3167018251137030e-002 9.0951809848021474e-003
      -2.5202582154779697e-002 -4.7670753672308532e-002
      3.2895769175718660e-002 2.3897010851334777e-001
      -7.2724309891700921e-003 7.4590225702737503e-002
      4.4869780772620778e-002 -1.6967109599562685e-002
      9.6247129228723746e-003 3.9310704644822121e-002
      -1.1241060730856006e-001 -5.8244916342084549e-002
      1.2190197887934945e-001 1.6522021114813973e-001
      3.1532277931109194e-002 -1.7000751971354641e-002
      -1.1608447248111574e-001 -7.6209426949908426e-002
      2.0371511788967184e-001 -7.2507223130696252e-003
      -9.5233771389153718e-002 -1.2798399971667263e-001
      -4.0044529936916914e-002 3.4134356932406851e-002
      1.5316036181238188e-001 -2.1358653638827645e-002
      3.7547200362563808e-002 -2.2894863976738660e-002
      6.3105977851074654e-003 2.3333544848870003e-002
      -1.2623266212103657e-002 -2.5424782032727757e-003
      -2.0906278181575758e-002 -1.3497149449829809e-001
      -7.1440151831238157e-003 2.4729681006000332e-002
      -5.5212765471724233e-002 -6.2290124911081254e-002
      4.9462326323906951e-002 -7.0203426525172127e-003
      -3.7990945436293215e-002 2.1337475127546374e-002
      -3.8341775373391351e-001 -8.6035994034460786e-002
      1.4045092403934931e-002 6.7697795809297800e-002
      -1.2399970379740190e-001 1.7831228959428892e-002
      1.4685222687790725e-001 -2.4001286314647126e-003
      -3.5464004120750327e-002 -4.8416708103715365e-003
      3.7433664945409159e-002 3.5595092291153228e-002
      1.5257533203608259e-002 3.7655946991290518e-002
      8.1233272640597057e-002 -1.3370001954068176e-002
      4.6270543659854453e-002 1.7912608227442655e-002
      3.8022432123998778e-002 1.3217575827430307e-002
      -3.1323742796723349e-002 1.7631547390287685e-002
      -2.2432141133113866e-002 -9.6193487605944913e-002
      -1.3448598724734473e-002 6.3405689607711299e-002
      3.8338892327136752e-003 -6.9055222285721612e-002
      6.6769411316703969e-002 2.5354055445867881e-002
      5.6212369547090094e-002 9.6443897899451986e-002
      9.2472062544482564e-002 -2.3042278933851799e-003
      1.0377563430090335e-001 -4.0616750843563594e-002
      -1.2404041832566763e-002 1.9153558216328640e-002
      -8.2537971692030698e-002 -6.6134612478749757e-002
      2.2861219044843006e-002 5.1618666793949636e-002
      -5.7223162171651930e-002 1.5509942531015533e-001
      -5.8721304473840781e-002 4.8648473558536688e-003
      9.5369468771510355e-002 2.5415121035023951e-002
      -2.7514917873408127e-002 1.8242544079697859e-002
      1.6143773312246781e-002 8.8320164537639453e-002
      7.5206843224689931e-003 5.3002664441676013e-002
      -2.0824911463925188e-002 -7.3416151120354142e-002
      3.7263319583729247e-003 6.8485397358645381e-002
      -1.0068644462477663e-001 -8.0971611810046681e-003
      -4.6764201054928838e-002 -9.5778526699009190e-003
      3.9903916826762281e-002 -4.1807575696526871e-002
      -1.9561556812501883e-002 -4.2879988534295255e-002
      2.4200055495876008e-002 3.8969387570030656e-002
      5.9133541275095632e-002 -3.2127971596964143e-002
      -5.2069483802770308e-002 1.2478240263207244e-002
      3.2034760875844531e-002 5.6249356697185719e-002
      -1.3164606145978556e-002 5.8449857076768398e-002
      2.9171202354602212e-003 -2.7666005983578977e-003
      1.4833670984549891e-002 3.1893334626210486e-003
      -1.3074998747796563e-002 3.2144997468425293e-002
      1.4868649663201231e-002 -1.5120838206779376e-002
      -1.3090968470278349e-003 -1.5869384071422504e-003
      5.7751708794040721e-002 4.1493721509370751e-002
      5.7818314396922990e-002 8.4918623446333922e-005
      4.3272813497767973e-002 -1.4831335153519946e-002
      -1.2649530427951526e-002 -2.7105442609651049e-002
      3.9372316709521682e-002 -5.4988871911081892e-002
      3.5347836768844258e-003 8.6187628694979132e-003
      -9.6233116663267202e-003 -4.1715699598669664e-002
      1.1267096208513870e-002 2.2238957551931345e-002
      -5.5416701221356134e-002 -8.2506717175017171e-003
      6.2867427017291254e-004 5.5619780324655818e-003
      -1.4183766962645315e-003 4.7002493942782553e-002
      -2.0402970358774863e-002 1.2436407495727423e-003
      -1.0665508190324009e-001 9.5723744111919168e-002
      -1.7518519149526380e-003 -5.5166805718413252e-002
      -2.3089446719960046e-002 -1.8507090657959326e-002
      5.5709036761857986e-003 -2.3051797572032892e-002
      -4.5833017232960273e-002 -1.3990837427992345e-002
      8.9699857596749616e-002 6.6530098603131679e-002
      5.3226422269913821e-003 -4.6425341642102803e-002
      -3.5257704508525841e-003 6.0843549521118367e-002
      6.9639535967631308e-005 -2.4755009144489955e-003
      2.5750157759299189e-002 -2.8622991750324355e-002
      -3.4205640594445495e-002 -2.1092646859895831e-002
      1.1628896033433633e-001 5.3233064925542896e-002
      -7.0727024807001285e-002 -3.8436311737323043e-003
      -2.0716877780923952e-002 3.0478997507056210e-002
      8.2110843037660086e-002 -1.6287056994604476e-002
      -4.6134093950289438e-002 1.1860735256233758e-001
      -1.3803599783395647e-002 3.6557772780702991e-002
      4.9119571914306125e-003 -1.6455810481339296e-002
      -3.6906753078210543e-002 4.4193077557045247e-002
      -4.9566047494300131e-002 -4.0183155942129572e-003
      -1.2517155000759884e-002 -2.4109591306435852e-002
      2.7962503961846071e-002 -3.1038132591110316e-002
      8.1323512611109067e-002 1.3581211380693400e-001
      1.1330335168514279e-001 -5.6259005554938971e-002
      -8.8360526488396832e-002 -6.3850596229718087e-002
      -6.9580094437992290e-002 2.4658854438595633e-002
      5.4415163709529819e-002 6.3234513665493763e-002
      -2.7073838261600446e-002 1.2594819503290937e-002
      7.5157569410884352e-004 -5.1385287497289031e-002
      -5.3299782396032155e-002 2.8147025268041422e-002
      2.2031854444046445e-003 1.7127914365648869e-001
      4.3425627339784875e-002 1.2075003923779971e-001
      1.2096112057388921e-002 -1.7119015900157145e-001
      9.9476233015806919e-003 -2.5480065622175242e-002
      -1.6797147049647644e-003 3.0465442161420084e-002
      1.8918300572164864e-001 -3.5589857529652928e-002
      -1.2031817674730669e-002 1.2604855306473484e-001
      -7.6346065737762495e-002 -4.0239398601326526e-002
      -5.0508601634633743e-001 -4.2726078484215294e-002
      -1.7738974394194678e-002 1.1579916371533666e-001
      2.2630415027325074e-002 2.9794708252385078e-002
      -1.0086677471058322e-001 1.8287351464301427e-002
      -1.1000126194758705e-002 5.9437455261584872e-002
      1.1247970986149262e-001 6.1056265516027837e-002
      -1.4185793150295920e-002 6.0437592434465406e-002
      2.2870872080219201e-003 7.8843697689507650e-002
      -4.6660761912381928e-004 -1.0107959189009270e-001
      -4.7002272303284201e-002 3.0304601135839695e-003
      4.3190258628148723e-002 3.7288073999850374e-002
      7.1497942967838166e-002 -2.3333370415748993e-002
      1.3081970823620803e-001 1.5059538621216798e-001
      -1.9296192206776280e-002 6.3520150935580874e-002
      -1.1343233757146255e-001 7.0331999257577087e-003
      6.6515936782609308e-003 -3.9732098728141867e-002
      -4.5878465164561670e-002 -6.1546217523131670e-002
      9.6940555058520443e-003 -5.0686511337787128e-002
      2.7308907804067088e-002 -1.9325799009531314e-002
      6.0691208787534128e-003 1.4367655899056943e-002
      8.8867997104613891e-002 5.0323253385764613e-002
      3.6090283337713747e-002 -1.4497749099848052e-002
      -4.7362128797603931e-002 -7.4337742550945426e-002
      -3.9169521507816774e-002 -1.1336164858831227e-001
      9.2507135047799009e-003 5.9298578998701661e-002
      -6.7645246566338108e-002 6.2840481973750237e-002
      1.3539658541249730e-001 -5.0596949853236317e-003
      -1.4876713680958106e-001 -1.1961359535081793e-002
      -2.9556098999630379e-004 -2.2659485782567362e-003
      7.4732062956261974e-002 9.4275925713194431e-002
      7.0305057288543304e-002 1.3247982951707066e-002
      4.1929071124829652e-002 6.9039950642641512e-002
      -2.0458483265428744e-002 -3.8439867291878316e-002
      1.7242182419002672e-001 2.9842344035752505e-002
      -4.6907260540313890e-002 -2.6781373825251534e-002
      -6.5191300978266462e-002 -2.6518478327802748e-002
      8.7245376442481398e-002 -8.7192218091507508e-003
      2.1634778329966759e-002 4.5826093181761021e-002
      -1.8724511052314777e-002 2.5706501825418320e-002
      -3.4682192015446249e-002 -6.1627458244444384e-002
      -6.0679572056062323e-003 2.3534841648003065e-002
      -5.5151461223821343e-005 -1.2594563085006550e-002
      4.0018022841297747e-002 1.3476798582643118e-001
      -5.0062285093026182e-002 -1.7878439150968286e-002
      -5.5533404599832734e-002 -5.6165703720819991e-002
      -9.0080740026166325e-002 -1.7873400957841866e-002
      -9.1983879787896211e-002 -2.9241613505958951e-002
      1.8440991110388182e-002 -3.7456359936651126e-002
      -2.3556407269226878e-002 -2.0221587622985238e-001
      3.1782507344856853e-002 -1.3789970098920327e-002
      -1.2510019659373563e-002 -3.2386149924978375e-002
      7.8829244921042194e-002 -7.7771702454330530e-002
      9.2083157577717456e-002 -3.3257776334635575e-001
      -7.0986555471760374e-002 -8.5072516264384668e-002
      2.9374537673378118e-003 1.6388502002100739e-002
      -2.7582329667253828e-002 -1.7612038919618486e-002
      -9.6465535608598246e-002 1.2099208280691071e-002
      -5.8585662341238132e-002 -1.9874075163804250e-001
      -4.1695127059082782e-003 2.4482474604920621e-002
      -6.0278219894681150e-002 2.1374822651794967e-002
      -1.6776735362053131e-002 3.1355364416723937e-002
      5.7415183914932749e-002 8.6635502655857316e-002
      7.8343409884094176e-002 -4.8273786292095423e-002
      -2.0448470277062841e-002 -7.9041070543183073e-002
      -2.1934319732627439e-002 -7.1260391992959151e-004
      -1.3257131389014644e-002 3.5109296681012411e-002
      6.2889704791059015e-002 -5.0755971471078860e-002
      1.8573742501049630e-002 -2.7576902310977680e-001
      -8.7367934081791082e-003 -1.0202454317654434e-001
      -4.8589813173652012e-002 9.0743113660103791e-002
      5.4305751711320342e-002 5.8094643722189324e-002
      4.3920259338778536e-002 3.6762252150602630e-002
      -2.4670033504601177e-001 -1.8548994110076431e-001
      8.3420243985043527e-003 2.9083145339935817e-002
      -2.8703004574967262e-002 -2.4337746597354526e-001
      5.8830073684794849e-002 2.7477510355078602e-002
      4.0694329035284076e-002 2.9982026597850639e-002
      6.9210194737748629e-002 8.4379215766330531e-003
      -2.5687018712703322e-002 -7.8683284946986398e-002
      8.3212226035815504e-002 -2.6397054250726210e-002
      1.4887729363917648e-002 1.3358681931293572e-002
      1.7127111438660213e-002 -5.5929469483968319e-002
      4.7973423993945318e-003 -1.3812479482120305e-001
      4.0616410886748645e-002 -1.4829348369746309e-001
      -2.8683738800824369e-002 7.7759926900263177e-002
      -6.8293477957262309e-003 3.6241455125246846e-002
      -1.0169155745027803e-002 5.3987102172645147e-003
      9.7381516890338901e-002 5.3371502217412613e-003
      3.3390778311665520e-003 3.5781668271863881e-002
      3.0240709277326458e-002 -9.1358932100624075e-003
      -6.4883141218136126e-002 -2.0261630602107325e-002
      5.3670332147205561e-002 -7.0083110047135785e-002
      1.0184496205942197e-003 5.9241144440271669e-002
      1.1009971476685544e-001 -1.0764927481233282e-001
      -4.6809350901628168e-002 2.7519080771906020e-002
      -3.0353790844807389e-002 -4.3504159092950009e-002
      -3.4311328867488687e-002 5.4620781604870425e-002
      -1.9552894416013562e-002 3.3377344280132515e-001
      3.2023303464769046e-002 -7.5476536374965791e-002
      -3.2659771799434890e-002 -1.0047064568814082e-002
      -4.1819458244218337e-002 -9.3403451901893659e-003
      9.2696637100109225e-002 8.0842360375337364e-003
      2.9140184576319911e-001 2.1367125483614349e-001
      5.5482280177815639e-002 5.6652285196751558e-003
      -7.2275414582125996e-002 3.5655916735445811e-002
      2.9101190551022317e-002 2.5232501329206812e-002
      2.1896629081802205e-002 1.2848246170107400e-001
      9.2025362299918451e-002 4.0248554177018545e-002
      -3.8454580789094472e-002 -5.9667295736666959e-002
      1.9375281517451631e-002 -5.3188016643080102e-003
      3.9398372602306428e-002 -2.1723752302204007e-002
      1.3037264258314609e-002 -2.9199692145308992e-003
      -2.4816440131662225e-002 -2.6185301767925334e-001
      2.4097737404151637e-002 -8.8904259268925243e-002
      1.2283849221245475e-002 7.8240469707482427e-002
      5.1264293448759379e-002 4.3896216350848387e-002
      1.5063927987959358e-001 -1.4517533538951010e-003
      -1.4352350541149678e-001 -4.3495702333630024e-002
      -1.5464484331624017e-002 -5.7677447348077227e-002
      -3.4437781386299403e-002 4.5907434645519399e-002
      1.8215573767674711e-001 -9.9494452863446298e-003
      2.7024464943543557e-002 6.0479185548911796e-002
      4.5030217515824401e-002 -7.1586828435106192e-002
      -7.3454735549074182e-002 -4.7180532248466009e-002
      -8.0104115904188426e-003 2.5933340641290634e-002
      6.5721834177488794e-002 -2.2292605794511200e-002
      -1.1649706664487528e-002 -3.1667134749726652e-003
      2.3637128372125098e-002 -2.6137518573644575e-001
      -9.3897001519530621e-003 -6.9978212985810487e-002
      1.4572372042024497e-002 4.9412541189141082e-002
      5.4939403439165813e-002 -5.5034433345596483e-002
      1.3764047036904420e-001 6.0998120719984866e-002
      -1.1308372689107013e-001 -1.2367170049873671e-001
      -4.8858557334050243e-002 -2.2938837991856507e-002
      1.4450230255195293e-001 -4.8401656049572611e-002
      -8.5114522937783668e-002 -1.4149937964304433e-003
      -1.3619244262962460e-002 -2.8931331915919338e-002
      -8.3550360992641140e-003 -2.9038377244985543e-002
      1.3420297821306696e-002 1.5007596413670110e-001
      -1.3426148130565834e-003 -1.3907711658415473e-002
      6.5405686163441154e-002 1.4252335203163135e-002
      -1.4074570660866731e-001 1.1039221930402618e-002
      1.8637905976120289e-002 2.4500427950519973e-001
      2.9348982746220956e-002 2.2186014645784163e-003
      6.1773008953345455e-002 -2.9044468974218206e-002
      2.3714486254893391e-002 3.7470708794553088e-002
      6.2766712121784141e-002 -4.4735549774905757e-002
      1.8445868307488858e-001 5.0382272629240651e-002
      1.7241762290478194e-002 5.0649043832574778e-002
      -9.0749809695282846e-002 -1.2293669471508220e-001
      1.8497730854012673e-001 9.0886146307392023e-003
      -2.3301725122323026e-002 1.3078953790951539e-001
      1.3288106273091216e-001 -2.4961349784091886e-002
      -9.3424508673430467e-002 -1.5717115386987013e-001
      4.0001902959409365e-003 -2.9342104402197838e-002
      4.5002927502365425e-002 -3.6421210666816514e-002
      1.5610477443242526e-001 -1.8307998248116162e-002
      3.6357374628462440e-002 -2.8678697557286026e-001
      -4.1014374874053405e-002 -1.2323578845779087e-001
      -1.3652914419581927e-002 1.6900983888250329e-001
      2.0383852019766273e-002 8.6787294672250798e-002
      7.3639545071333093e-002 -6.0116624392940812e-002
      -7.2919066012692504e-002 -3.1907146544156689e-002
      5.4429798345413716e-001 2.1677318138421348e-001
      -3.5219739261916982e-001 6.6082049876314752e-001
      -8.4078072259731202e-003 7.2539154179078857e-001
      2.2179650511916363e-001 5.0804849606840141e-001
      -5.9141415843881529e-001 -5.1916986489313210e-001
      -3.0487743635442710e-001 1.7414437969030880e-001
      -7.4341915950509055e-002 1.5498520140814087e-001
      1.8929608913029777e-001 -2.5193319587626789e-001
      -4.1146282589489480e-001 -2.0167452328174401e-001
      -2.7320240470173524e-001 -2.2061247369097725e-001
      1.9188828462427146e-001 -4.2798384116081500e-001
      1.9913152167357903e-001 1.8246489023065818e-001
      -3.7355012736301868e-001 -8.9743891829641306e-002
      -5.4389612460021886e-001 -3.1008336948365023e-001
      2.5201808925348940e-001 -2.3959786138303379e-001</_>
    <_>
      -5.8933189849845724e-001 -4.2279605707299384e-001
      -5.8974033066966169e-001 -7.9370237575228919e-001
      1.2230864695273647e-001 -4.4929120426797764e-001
      1.3661392914922800e-002 2.4859336325622075e-001
      1.1830204504553858e-001 -5.3539019448865888e-001
      -4.5912947919677449e-001 -9.4439597777920903e-001
      9.5012649659541693e-001 5.1549974581223779e-001
      1.4152032497787068e-001 3.4449885409623342e-002
      -3.4856393431251675e-001 -7.6181423184137731e-001
      4.2782552404748392e-001 -6.0515118582221161e-001
      3.9480991445933467e-001 6.7427905173465930e-001
      -8.7373440859328877e-001 -2.1850887684523135e-001
      -1.2841332092764735e-001 1.2348978199060006e+000
      -1.1993164607163240e-001 -1.5298844119352550e-001
      -7.5606251379535971e-001 -2.6626221928428434e-001
      -5.3344292601961008e-001 -5.7929972766896343e-001
      -8.5456521651504747e-001 -6.3357041892515886e-001
      -8.4789985931305778e-001 -3.9257967705964086e-001
      -4.6875773970373118e-002 -3.3044535290531013e-001
      9.0259574197385328e-001 6.9440358945449310e-001
      -5.5961873548623153e-001 9.5073922679557699e-001
      -8.3410038606266890e-001 6.4662936985225283e-001
      -2.6467842126826902e-001 -2.0993296344813087e-001
      -7.2971456570832616e-001 -5.7183352528463316e-001
      5.4286735748072601e-001 8.5566162289041559e-001
      7.8084184229509901e-001 6.2113161645264003e-001
      2.1617369060453837e-001 3.4094864095986732e-001
      8.4910489956768964e-001 -1.2565827775888741e-001
      8.2427967623998233e-001 -6.6512268681258069e-001
      6.1681443366453448e-001 7.0019969334859533e-001
      7.6053060993265653e-001 -8.1818673421427801e-001
      -6.1174062745115088e-001 -1.2839215170135751e-001
      5.0922897957589108e-001 -9.0264582310484814e-002
      -7.0383755585371743e-001 -6.7367386424475462e-001
      4.9030059435735213e-001 5.9409619741002828e-001
      6.7687379717709717e-001 4.9152242152779291e-001
      9.1412552202791675e-001 -2.3263943584176486e-001
      7.6012754011969319e-001 -1.1010285279471163e-001
      -4.7297836274642685e-001 -6.3618338925375412e-002
      3.3243815279714500e-001 -2.0366991682045710e-001
      1.2094046568635081e-001 -1.7951106640582651e-001
      -4.0421655763640962e-001 -7.0097362933921348e-001
      7.3076169224230247e-001 -1.0600962523628850e-001
      -3.7504850163359038e-001 -8.6972562550628429e-001
      -8.0062997377222844e-001 9.4902220032239015e-001
      8.4241029660877720e-001 2.8358712591509622e-001
      -2.8371654566131627e-001 6.1684619537953914e-002
      -1.2800910682605746e-001 -4.2392416872933297e-001
      8.5360796228399871e-001 7.4348170781573453e-001
      1.9767454797969003e-001 -3.5693381371779798e-001
      -6.1643666710818878e-001 4.1198636721013970e-001
      7.2896818749973458e-001 -4.9046073547748044e-002
      5.4831488487164592e-001 -4.0875574361286215e-001
      2.6698455949563285e-002 -6.8569285361997756e-001
      -2.1695006635855471e-001 4.9403931442171589e-001
      -7.8272331390272898e-001 4.9845521061324142e-003
      4.4120009899224344e-001 6.5051312015534202e-001
      -5.9538188983671347e-001 7.9802724820561077e-001
      -5.6857201421761661e-001 1.4758285914045829e-001
      -2.4872811382169643e-001 -4.9717828511709550e-001
      2.3137389581782222e-001 -5.8317671843778329e-001
      6.8557849736373383e-002 -1.2622469595742314e-001
      -2.0196644771902969e-001 -1.8595821484265518e-001
      2.3346986870325984e-001 2.8728356020633578e-001
      2.7201849085519575e-001 -5.2032999643079458e-001
      5.4671077182350036e-001 1.0426460393650243e+000
      6.9170183306578614e-001 -1.7607427675082959e-001
      1.5097956189168201e-002 5.8818637984978417e-001
      -7.1508509740964754e-001 -6.8309666257161761e-001
      6.3308412945730674e-001 -5.7505134295769755e-001
      -7.6613502307864501e-001 9.0651521459407081e-001
      -5.4025150345570971e-001 6.1196762169757446e-001
      9.6543590748052244e-001 2.0202125958112807e-001
      -9.2112396292031062e-001 6.1679063831831660e-001
      1.4691091533397413e-001 1.4534021446492632e-001
      1.6140656322287888e-001 7.1411153561469265e-001
      7.0982653815138996e-001 2.6714750981159094e-002
      -5.6194272881716456e-001 8.0441284250235967e-001
      -4.7374675386941784e-001 7.8041583352446764e-001
      7.2576126910486305e-001 -7.6760988591228718e-001
      7.8776495815211089e-001 -2.5069005277543466e-001
      -1.9513968949855975e-001 1.1125255126109947e-001
      8.5782576925028831e-001 2.1650422707499517e-001
      7.0527344367669009e-001 -4.7617395588861855e-002
      7.2294281535895200e-001 -1.1112077522483457e+000
      9.7863394848619056e-001 -3.6976345708107838e-001
      -3.6455790799888943e-001 4.6299828301160340e-001
      4.7260697790854053e-002 1.8332161171180322e-001
      -7.6047992326054981e-001 1.1157596609637890e+000
      -4.6981901758813040e-002 5.1113019657874625e-001
      -3.8490789312366651e-002 4.4013866249323841e-001
      -2.0471261808926355e-001 -8.3665116134449424e-001
      3.2156432024582959e-002 -3.9983787653466479e-001</_></weights></my_nn>
</opencv_storage>
